net
{
	node_size = (90.0 36.0);
}

node RobinParent2Gene1Copy
{
	states = ("M" "m" );
	position = (314 301);
	ismapvariable = "false";
	diagnosistype = "AUXILIARY";
	lablel = "RobinParent2Gene1Copy";
	excludepolicy = "include whole CPT";
}
node IraParent1Gene2Copy
{
	states = ("B" "b" );
	position = (849 308);
	ismapvariable = "false";
	diagnosistype = "AUXILIARY";
	lablel = "IraParent1Gene2Copy";
	excludepolicy = "include whole CPT";
}
node JamesPhenotype
{
	states = ("SpinalMuscularAtrophy" "NoSpinalMuscularAtrophy" );
	position = (568 -37);
	ismapvariable = "false";
	diagnosistype = "AUXILIARY";
	lablel = "JamesPhenotype";
	excludepolicy = "include whole CPT";
}
node RobinParent1Gene1Copy
{
	states = ("M" "m" );
	position = (49 301);
	ismapvariable = "false";
	diagnosistype = "AUXILIARY";
	lablel = "RobinParent1Gene1Copy";
	excludepolicy = "include whole CPT";
}
node IraPhenotype
{
	states = ("SpinalMuscularAtrophy" "NoSpinalMuscularAtrophy" );
	position = (914 209);
	ismapvariable = "false";
	diagnosistype = "AUXILIARY";
	lablel = "IraPhenotype";
	excludepolicy = "include whole CPT";
}
node IraParent2Gene2Copy
{
	states = ("B" "b" );
	position = (1109 308);
	ismapvariable = "false";
	diagnosistype = "AUXILIARY";
	lablel = "IraParent2Gene2Copy";
	excludepolicy = "include whole CPT";
}
node IraParent1Gene1Copy
{
	states = ("M" "m" );
	position = (719 308);
	ismapvariable = "false";
	diagnosistype = "AUXILIARY";
	lablel = "IraParent1Gene1Copy";
	excludepolicy = "include whole CPT";
}
node RobinParent1Gene2Copy
{
	states = ("B" "b" );
	position = (183 301);
	ismapvariable = "false";
	diagnosistype = "AUXILIARY";
	lablel = "RobinParent1Gene2Copy";
	excludepolicy = "include whole CPT";
}
node RobinParent2Gene2Copy
{
	states = ("B" "b" );
	position = (443 301);
	ismapvariable = "false";
	diagnosistype = "AUXILIARY";
	lablel = "RobinParent2Gene2Copy";
	excludepolicy = "include whole CPT";
}
node IraParent2Gene1Copy
{
	states = ("M" "m" );
	position = (978 308);
	ismapvariable = "false";
	diagnosistype = "AUXILIARY";
	lablel = "IraParent2Gene1Copy";
	excludepolicy = "include whole CPT";
}
node JamesParent1Gene2Copy
{
	states = ("B" "b" );
	position = (514 63);
	ismapvariable = "false";
	diagnosistype = "AUXILIARY";
	lablel = "JamesParent1Gene2Copy";
	excludepolicy = "include whole CPT";
}
node JamesParent1Gene1Copy
{
	states = ("M" "m" );
	position = (384 63);
	ismapvariable = "false";
	diagnosistype = "AUXILIARY";
	lablel = "JamesParent1Gene1Copy";
	excludepolicy = "include whole CPT";
}
node JamesParent2Gene2Copy
{
	states = ("B" "b" );
	position = (773 63);
	ismapvariable = "false";
	diagnosistype = "AUXILIARY";
	lablel = "JamesParent2Gene2Copy";
	excludepolicy = "include whole CPT";
}
node JamesParent2Gene1Copy
{
	states = ("M" "m" );
	position = (643 63);
	ismapvariable = "false";
	diagnosistype = "AUXILIARY";
	lablel = "JamesParent2Gene1Copy";
	excludepolicy = "include whole CPT";
}
node RobinPhenotype
{
	states = ("SpinalMuscularAtrophy" "NoSpinalMuscularAtrophy" );
	position = (248 200);
	ismapvariable = "false";
	diagnosistype = "AUXILIARY";
	lablel = "RobinPhenotype";
	excludepolicy = "include whole CPT";
}
potential ( RobinParent2Gene1Copy | )
{
	data = (	0.2	0.8	);
}
potential ( IraParent1Gene2Copy | )
{
	data = (	0.3	0.7	);
}
potential ( JamesPhenotype | JamesParent1Gene1Copy JamesParent1Gene2Copy JamesParent2Gene1Copy JamesParent2Gene2Copy )
{
	data = (((((	0.99959	4.1E-4	)
		(	0.858149	0.141851	))
		((	0.997762	0.002238	)
		(	0.524979	0.475021	)))
		(((	0.858149	0.141851	)
		(	0.014774	0.985226	))
		((	0.524979	0.475021	)
		(	0.002732	0.997268	))))
		((((	0.997762	0.002238	)
		(	0.524979	0.475021	))
		((	0.987872	0.012128	)
		(	0.167982	0.832018	)))
		(((	0.524979	0.475021	)
		(	0.002732	0.997268	))
		((	0.167982	0.832018	)
		(	5.0E-4	0.9995	)))));
}
potential ( RobinParent1Gene1Copy | )
{
	data = (	0.2	0.8	);
}
potential ( IraPhenotype | IraParent1Gene1Copy IraParent1Gene2Copy IraParent2Gene1Copy IraParent2Gene2Copy )
{
	data = (((((	0.99959	4.1E-4	)
		(	0.858149	0.141851	))
		((	0.997762	0.002238	)
		(	0.524979	0.475021	)))
		(((	0.858149	0.141851	)
		(	0.014774	0.985226	))
		((	0.524979	0.475021	)
		(	0.002732	0.997268	))))
		((((	0.997762	0.002238	)
		(	0.524979	0.475021	))
		((	0.987872	0.012128	)
		(	0.167982	0.832018	)))
		(((	0.524979	0.475021	)
		(	0.002732	0.997268	))
		((	0.167982	0.832018	)
		(	5.0E-4	0.9995	)))));
}
potential ( IraParent2Gene2Copy | )
{
	data = (	0.3	0.7	);
}
potential ( IraParent1Gene1Copy | )
{
	data = (	0.2	0.8	);
}
potential ( RobinParent1Gene2Copy | )
{
	data = (	0.3	0.7	);
}
potential ( RobinParent2Gene2Copy | )
{
	data = (	0.3	0.7	);
}
potential ( IraParent2Gene1Copy | )
{
	data = (	0.2	0.8	);
}
potential ( JamesParent1Gene2Copy | IraParent1Gene2Copy IraParent2Gene2Copy )
{
	data = (((	1.0	0.0	)
		(	0.5	0.5	))
		((	0.5	0.5	)
		(	0.0	1.0	)));
}
potential ( JamesParent1Gene1Copy | IraParent1Gene1Copy IraParent2Gene1Copy )
{
	data = (((	1.0	0.0	)
		(	0.5	0.5	))
		((	0.5	0.5	)
		(	0.0	1.0	)));
}
potential ( JamesParent2Gene2Copy | RobinParent1Gene2Copy RobinParent2Gene2Copy )
{
	data = (((	1.0	0.0	)
		(	0.5	0.5	))
		((	0.5	0.5	)
		(	0.0	1.0	)));
}
potential ( JamesParent2Gene1Copy | RobinParent1Gene1Copy RobinParent2Gene1Copy )
{
	data = (((	1.0	0.0	)
		(	0.5	0.5	))
		((	0.5	0.5	)
		(	0.0	1.0	)));
}
potential ( RobinPhenotype | RobinParent1Gene1Copy RobinParent1Gene2Copy RobinParent2Gene1Copy RobinParent2Gene2Copy )
{
	data = (((((	0.99959	4.1E-4	)
		(	0.858149	0.141851	))
		((	0.997762	0.002238	)
		(	0.524979	0.475021	)))
		(((	0.858149	0.141851	)
		(	0.014774	0.985226	))
		((	0.524979	0.475021	)
		(	0.002732	0.997268	))))
		((((	0.997762	0.002238	)
		(	0.524979	0.475021	))
		((	0.987872	0.012128	)
		(	0.167982	0.832018	)))
		(((	0.524979	0.475021	)
		(	0.002732	0.997268	))
		((	0.167982	0.832018	)
		(	5.0E-4	0.9995	)))));
}
